{
  "config_type": "high_capacity",
  "algorithm": "PPO",
  "layer_capacities": [
    8,
    8,
    8,
    8,
    8
  ],
  "total_capacity": 40,
  "arrival_weights": [
    0.3,
    0.25,
    0.2,
    0.15,
    0.1
  ],
  "base_arrival_rate": 48.0,
  "high_load_multiplier": 10.0,
  "mean_reward": -34.608664138578995,
  "std_reward": 24.22195144273539,
  "best_reward": 3.068181818181813,
  "worst_reward": -80.38333333333334,
  "crash_rate": 1.0,
  "completion_rate": 0.0,
  "terminated_count": 50,
  "truncated_count": 0,
  "mean_episode_length": 1.0,
  "mean_waiting_time": 0.0,
  "mean_utilization": 0.25800000000000006,
  "training_time_minutes": 5.692187543710073,
  "eval_rewards": [
    -70.25,
    3.068181818181813,
    -79.68333333333334,
    -57.73461538461538,
    -27.21666666666667,
    -16.3421568627451,
    -18.28333333333333,
    -5.873809523809541,
    -58.349999999999994,
    -38.483333333333334,
    -48.33333333333333,
    -8.350000000000023,
    -7.350000000000023,
    -79.55000000000001,
    -26.497368421052627,
    -28.049999999999997,
    -67.94999999999999,
    -27.883333333333326,
    -37.634848484848476,
    1.25,
    -80.08333333333334,
    -17.101515151515144,
    -38.41666666666666,
    -8.127777777777794,
    -48.483333333333334,
    -7.816666666666691,
    -39.31666666666666,
    -48.44696969696969,
    -16.48333333333332,
    -58.79444444444444,
    -18.53333333333333,
    -80.02619047619048,
    -38.483333333333334,
    -80.38333333333334,
    -39.69166666666666,
    -28.21666666666667,
    -6.39166666666668,
    -5.478205128205133,
    -38.56666666666666,
    -8.51666666666668,
    -9.01666666666668,
    -17.28333333333333,
    -37.44166666666666,
    -39.88809523809523,
    -27.692857142857136,
    -29.549999999999997,
    -17.28333333333333,
    -17.94999999999999,
    -47.730392156862735,
    -79.7404761904762
  ],
  "eval_lengths": [
    1,
    1,
    1,
    1,
    1,
    1,
    1,
    1,
    1,
    1,
    1,
    1,
    1,
    1,
    1,
    1,
    1,
    1,
    1,
    1,
    1,
    1,
    1,
    1,
    1,
    1,
    1,
    1,
    1,
    1,
    1,
    1,
    1,
    1,
    1,
    1,
    1,
    1,
    1,
    1,
    1,
    1,
    1,
    1,
    1,
    1,
    1,
    1,
    1,
    1
  ],
  "timestamp": "2026-01-02T18:49:50.106104"
}