{
  "config_type": "inverted_pyramid",
  "algorithm": "A2C",
  "seed": 123,
  "layer_capacities": [
    8,
    6,
    4,
    3,
    2
  ],
  "total_capacity": 23,
  "arrival_weights": [
    0.3,
    0.25,
    0.2,
    0.15,
    0.1
  ],
  "base_arrival_rate": 27.6,
  "high_load_multiplier": 10.0,
  "mean_reward": 1143.2631644333542,
  "std_reward": 9850.569057013776,
  "best_reward": 33686.37520258302,
  "worst_reward": -12949.24317504445,
  "crash_rate": 1.0,
  "completion_rate": 0.0,
  "terminated_count": 50,
  "truncated_count": 0,
  "mean_episode_length": 144.54,
  "mean_waiting_time": 0.0,
  "mean_utilization": 0.2806470317929505,
  "training_time_minutes": 2.7696472724278767,
  "eval_rewards": [
    3142.984926030375,
    14713.031843754961,
    -2101.156545773983,
    -11797.65259933209,
    7118.3867614324145,
    -3101.0816984354205,
    -2291.0111491666894,
    -290.4442501088456,
    -786.7077795024566,
    5639.08334806833,
    -7228.547589294765,
    10339.979768660909,
    -1796.93687440742,
    -3150.4427783419605,
    3154.05007451808,
    -6137.164251329115,
    -7547.150264254226,
    33686.37520258302,
    -234.56428074972445,
    8881.103247638644,
    -2677.591328491899,
    5822.066930461748,
    -3674.867832053701,
    8801.191863931364,
    -892.7815817216615,
    -5414.943011853856,
    -11694.427581978383,
    -11949.012886786686,
    -2167.785558016847,
    -675.5287777629774,
    -2421.01133294428,
    -608.5614568638848,
    5094.601982682612,
    -5168.358213486119,
    23021.121761966075,
    27349.353975844453,
    6912.911817191579,
    5094.6703937341745,
    160.02621911014103,
    -7664.793548380632,
    -3078.5297808720948,
    -12949.24317504445,
    15994.50113012448,
    -4623.499764038721,
    -7078.638402381322,
    -3834.6474944711804,
    18565.665502860666,
    -3281.4151447550553,
    2660.5613496910364,
    -12670.012946016901
  ],
  "eval_lengths": [
    94,
    360,
    24,
    4,
    175,
    167,
    39,
    3,
    59,
    197,
    93,
    312,
    79,
    14,
    174,
    76,
    90,
    792,
    3,
    307,
    87,
    111,
    116,
    365,
    81,
    59,
    21,
    21,
    36,
    117,
    69,
    91,
    231,
    75,
    488,
    526,
    132,
    207,
    95,
    63,
    59,
    9,
    362,
    24,
    80,
    15,
    398,
    74,
    151,
    2
  ],
  "timestamp": "2026-01-07T08:47:50.192123"
}