{
  "config_type": "high_capacity",
  "algorithm": "A2C",
  "layer_capacities": [
    8,
    8,
    8,
    8,
    8
  ],
  "total_capacity": 40,
  "arrival_weights": [
    0.3,
    0.25,
    0.2,
    0.15,
    0.1
  ],
  "base_arrival_rate": 48.0,
  "high_load_multiplier": 10.0,
  "mean_reward": -30.210018947669354,
  "std_reward": 26.119109503641724,
  "best_reward": 34.056962025316466,
  "worst_reward": -101.15084388185653,
  "crash_rate": 1.0,
  "completion_rate": 0.0,
  "terminated_count": 50,
  "truncated_count": 0,
  "mean_episode_length": 1.0,
  "mean_waiting_time": 0.0,
  "mean_utilization": 0.298,
  "training_time_minutes": 3.1776604334513348,
  "eval_rewards": [
    -6.805696202531635,
    -25.823136427566794,
    26.696654611211557,
    -25.545358649789023,
    -16.228091528724434,
    -5.569332566168015,
    -49.018354430379745,
    -57.13818565400844,
    -14.792194092827003,
    -6.296605293440734,
    -36.7344206426485,
    -59.804852320675096,
    -18.545358649789023,
    -45.551687763713076,
    -36.765189873417725,
    -16.792194092827003,
    34.056962025316466,
    -16.752978406552472,
    12.633966244725741,
    -47.21835443037975,
    -26.635102239532614,
    -26.778691983122357,
    -37.21518987341773,
    -17.058860759493655,
    -47.14143135345667,
    -56.0099805258033,
    -25.46202531645571,
    7.8709977661950745,
    -47.46835443037975,
    -57.56242807825086,
    -57.67151898734177,
    -45.64692585895118,
    -101.15084388185653,
    -88.15408958130477,
    -15.95886075949366,
    -14.569971870604775,
    -26.481256085686468,
    -5.872362869198298,
    -68.1246835443038,
    -18.887432188065077,
    -17.277042577675473,
    -49.09335443037975,
    -45.551687763713076,
    -58.72151898734177,
    -28.656469760900137,
    4.278237585199605,
    -46.98758519961052,
    -26.569168173598555,
    -6.436465433300867,
    -47.512472077438574
  ],
  "eval_lengths": [
    1,
    1,
    1,
    1,
    1,
    1,
    1,
    1,
    1,
    1,
    1,
    1,
    1,
    1,
    1,
    1,
    1,
    1,
    1,
    1,
    1,
    1,
    1,
    1,
    1,
    1,
    1,
    1,
    1,
    1,
    1,
    1,
    1,
    1,
    1,
    1,
    1,
    1,
    1,
    1,
    1,
    1,
    1,
    1,
    1,
    1,
    1,
    1,
    1,
    1
  ],
  "timestamp": "2026-01-02T18:42:37.619804"
}