{
  "config_type": "high_capacity",
  "algorithm": "TD7",
  "layer_capacities": [
    8,
    8,
    8,
    8,
    8
  ],
  "total_capacity": 40,
  "arrival_weights": [
    0.3,
    0.25,
    0.2,
    0.15,
    0.1
  ],
  "base_arrival_rate": 48.0,
  "high_load_multiplier": 10.0,
  "mean_reward": -34.87702130760765,
  "std_reward": 30.054088128548404,
  "best_reward": 42.64270386266094,
  "worst_reward": -109.59495708154506,
  "crash_rate": 1.0,
  "completion_rate": 0.0,
  "terminated_count": 50,
  "truncated_count": 0,
  "mean_episode_length": 1.0,
  "mean_waiting_time": 0.0,
  "mean_utilization": 0.2705,
  "training_time_minutes": 38.74066120386124,
  "eval_rewards": [
    -47.34155937052934,
    -49.37489270386267,
    -29.77525586001981,
    -48.04155937052933,
    -109.59495708154506,
    -68.68991416309012,
    42.64270386266094,
    -26.374156958920906,
    -29.58844267320663,
    -29.32653791130187,
    -39.167381974248926,
    -69.43991416309012,
    -26.459871244635195,
    -28.10431568907964,
    -59.932403433476395,
    -37.30199735886431,
    -50.07489270386267,
    -27.409871244635198,
    -28.909871244635198,
    24.027682403433488,
    33.38519313304721,
    -27.94558553034949,
    -59.04778804886101,
    -80.94742489270386,
    -62.932403433476395,
    -39.29973491542539,
    -68.88991416309013,
    -8.478183118741072,
    0.41266094420601007,
    -49.34155937052934,
    -37.667381974248926,
    -48.32873885770883,
    -69.18991416309012,
    -56.932403433476395,
    -47.86720039617036,
    -7.144849785407729,
    -7.394849785407729,
    -18.602360515021445,
    -39.917381974248926,
    -17.94781506047599,
    -27.493204577968527,
    -22.402360515021456,
    -58.8324034334764,
    -37.00829106515802,
    -14.957916070577,
    -89.20493562231759,
    -57.09907010014307,
    11.036838340486412,
    22.627682403433482,
    -18.202360515021468
  ],
  "eval_lengths": [
    1,
    1,
    1,
    1,
    1,
    1,
    1,
    1,
    1,
    1,
    1,
    1,
    1,
    1,
    1,
    1,
    1,
    1,
    1,
    1,
    1,
    1,
    1,
    1,
    1,
    1,
    1,
    1,
    1,
    1,
    1,
    1,
    1,
    1,
    1,
    1,
    1,
    1,
    1,
    1,
    1,
    1,
    1,
    1,
    1,
    1,
    1,
    1,
    1,
    1
  ],
  "timestamp": "2026-01-03T16:04:07.900245"
}